encog,BasicNetwork,java,3.0.1,1,1448633453335
[BASIC]
[BASIC:PARAMS]
[BASIC:NETWORK]
beginTraining=0
connectionLimit=0
contextTargetOffset=0,0,0
contextTargetSize=0,0,0
endTraining=2
hasContext=f
inputCount=4
layerCounts=1,11,5
layerFeedCounts=1,10,4
layerContextCount=0,0,0
layerIndex=0,1,12
output=0.20580176277445375,0.01876599736717331,0.9980734888197612,0.9999997208437525,0.9999880309693499,0.00000000000000292283,0.9999999999999516,0.9999999993858075,0.00000000007033644774,1,0.00000000154062565268,1,17.7,25,14.5,25,1
outputCount=1
weightIndex=0,11,61
weights=0.34410510402554434,2.3529479182669615,-1.14032187677937,0.6731762954333187,-0.5630758255104304,-0.5251573822244778,-5.84610749875119,-0.5521943994488283,3.4217926603870885,-3.0513896743333526,-0.2886665815464885,0.0017209721639690316,-0.7321796875683094,-0.6260449885497755,0.9597877759464507,-0.5997754671282671,1.6199144248373385,-0.12944853413403792,-0.4504616876780617,-0.5316504419369221,0.6367997747160666,0.22247950903948838,0.42505012239793327,0.4978120909322528,-0.3001802530757408,0.813584544580599,0.461242936380334,0.4251731671381263,0.9153441670854157,-0.8607651873703484,0.7864861633133013,-0.46351080909464376,-0.40320392406990424,-0.3287245215215348,-0.40311755135166916,-0.3375394158961811,0.09749624987357575,0.6611853309873006,0.42040901735557135,0.2724876601241262,-0.5061175222929201,-2.04184736852784,2.7324845701983405,-3.0762167534141502,1.3388504200691305,0.17317942543461734,0.5676832638640774,-0.2549096714612088,-0.9227650448455864,-0.5170224100868508,-0.7473295727434772,1.2149343355300704,0.13043954655478007,-1.073501808925111,1.2156924632478256,-0.9076366985061782,-2.220556134988178,0.1668951757677879,0.8084533396130285,0.13955206464870762,-0.370988079019526
biasActivation=0,1,1
[BASIC:ACTIVATION]
"ActivationSigmoid"
"ActivationSigmoid"
"ActivationLinear"
